0.507049
0.758469
0.248561
-1.67465
3.29038
-2.49098
0.454585
0.760536
0.25491
-1.67701
3.59034
-2.63587
0.520819
0.761144
0.252818
-1.68237
3.00751
-2.60806
0.3942
0.762078
0.256066
-1.66988
4.07895
-2.54651
0.54577
0.762043
0.251078
-1.68727
2.77024
-2.63011
0.453706
0.762756
0.268281
-1.65115
3.3391
-2.58639
0.465908
0.761707
0.256049
-1.67624
3.44197
-2.59071
0.485942
0.764328
0.251243
-1.68899
3.2376
-2.58185
0.420199
0.764502
0.247872
-1.7011
3.86255
-2.64412
0.408542
0.763319
0.252874
-1.68399
3.94254
-2.60856
0.451952
0.762077
0.257439
-1.66303
3.53277
-2.54513
0.450683
0.758911
0.287721
-1.60984
3.21032
-2.56841
0.446438
0.764221
0.274988
-1.65692
3.27303
-2.58474
0.503545
0.76355
0.266957
-1.67232
2.89417
-2.62325
0.422135
0.762508
0.277068
-1.64044
3.51652
-2.55729
0.443314
0.763417
0.279264
-1.632
3.24409
-2.5856
0.366884
0.759693
0.306607
-1.58641
3.61902
-2.61337
0.389183
0.760778
0.313246
-1.58867
3.27653
-2.62185
0.364496
0.76244
0.305364
-1.60655
3.60013
-2.55966
0.381597
0.761604
0.312421
-1.59809
3.34639
-2.60066
0.263461
0.763389
0.310483
-1.58826
4.38872
-2.48855
0.330275
0.765013
0.309309
-1.60819
3.74971
-2.55856
0.369516
0.764578
0.299702
-1.62375
3.57764
-2.56736
0.361938
0.766935
0.29169
-1.63819
3.68347
-2.58431
0.360377
0.767043
0.289108
-1.63585
3.71784
-2.61689
0.33964
0.765542
0.300137
-1.6191
3.77771
-2.62748
0.341169
0.76347
0.300838
-1.60564
3.84414
-2.52812
0.420298
0.758454
0.324057
-1.55808
2.8571
-2.64276
0.340415
0.75994
0.334497
-1.54814
3.3531
-2.55699
0.279736
0.761391
0.335333
-1.56103
3.83834
-2.58498
0.351166
0.760154
0.337764
-1.55676
3.19119
-2.59971
0.179712
0.759873
0.350254
-1.53849
4.51821
-2.50802
0.272092
0.764123
0.348302
-1.56847
3.54891
-2.63969
0.234133
0.764318
0.345834
-1.55827
3.93766
-2.56419
0.223034
0.763472
0.344941
-1.55802
4.08006
-2.5907
