0.925337
0.44912
-0.173577
-2.13609
-0.327295
-2.71789
0.919093
0.450799
-0.16215
-2.11773
-0.261588
-2.64471
0.918505
0.450977
-0.168842
-2.13259
-0.243048
-2.70508
0.918094
0.451829
-0.166622
-2.12803
-0.251365
-2.70285
0.91728
0.45003
-0.170995
-2.13552
-0.206784
-2.70542
0.902844
0.459884
-0.152782
-2.10721
-0.127704
-2.70988
0.918117
0.4524
-0.166244
-2.12747
-0.259216
-2.6919
0.915776
0.450064
-0.175999
-2.14265
-0.17209
-2.70191
0.922791
0.446198
-0.176878
-2.1388
-0.237413
-2.63165
0.921686
0.449637
-0.170866
-2.13765
-0.27551
-2.71513
0.916244
0.453499
-0.165863
-2.12551
-0.246771
-2.75369
0.887961
0.470965
-0.125309
-2.0605
-0.0825433
-2.63532
0.898566
0.464444
-0.151448
-2.11075
-0.113795
-2.67282
0.903067
0.459562
-0.157572
-2.12201
-0.112398
-2.66842
0.897444
0.465264
-0.145365
-2.09586
-0.12106
-2.67509
0.893038
0.465617
-0.140803
-2.08199
-0.0624836
-2.64077
0.868987
0.481329
-0.104312
-2.03329
0.0435426
-2.60482
0.860562
0.48638
-0.101854
-2.04271
0.109319
-2.63766
0.869235
0.482186
-0.116434
-2.06724
0.0621375
-2.64189
0.865787
0.486174
-0.107605
-2.06132
0.0422935
-2.674
0.869797
0.485337
-0.114565
-2.06759
0.00149429
-2.72044
0.867277
0.485119
-0.118592
-2.07923
0.0576145
-2.71021
0.875924
0.479135
-0.127305
-2.0919
0.0178393
-2.69627
0.879977
0.473764
-0.137194
-2.09599
0.0445033
-2.64923
0.880895
0.471189
-0.136124
-2.08986
0.0602591
-2.64603
0.873832
0.47786
-0.122733
-2.07133
0.0576623
-2.63384
0.876047
0.479338
-0.123084
-2.06627
-0.00109449
-2.65483
0.8491
0.492486
-0.084452
-2.01719
0.16243
-2.67417
0.842793
0.499841
-0.0830021
-2.0294
0.158418
-2.74882
0.841624
0.499211
-0.0834832
-2.02359
0.194214
-2.62402
0.837808
0.501764
-0.0803738
-2.02858
0.209543
-2.70111
0.82897
0.508495
-0.0708501
-2.01702
0.233844
-2.65301
0.821485
0.507661
-0.0764694
-2.03311
0.388824
-2.61054
0.827939
0.506115
-0.0807565
-2.03402
0.314223
-2.65532
0.827986
0.505101
-0.0779217
-2.02463
0.319526
-2.61819
0.822593
0.507199
-0.0752174
-2.02216
0.369609
-2.61842
0.830842
0.50352
-0.0787772
-2.02317
0.29805
-2.61072
0.825608
0.50652
-0.0637921
-1.99479
0.292096
-2.62607
0.822468
0.508045
-0.0677994
-2.01123
0.338834
-2.60686
0.828395
0.505106
-0.0749242
-2.01513
0.300637
-2.64382
0.83353
0.501476
-0.0862874
-2.03375
0.303686
-2.61387
0.840812
0.500332
-0.0839013
-2.03376
0.193314
-2.67174
0.833857
0.504005
-0.0750407
-2.02768
0.229927
-2.68516
0.844433
0.495148
-0.094512
-2.04265
0.238849
-2.59532
0.858204
0.485369
-0.111906
-2.05972
0.192469
-2.56561
0.877298
0.475713
-0.118813
-2.05303
0.0147085
-2.64147
0.871595
0.48227
-0.108018
-2.05435
0.00166334
-2.62536
0.866004
0.481288
-0.10939
-2.04304
0.108578
-2.57855
0.861111
0.486711
-0.0986381
-2.03231
0.0870257
-2.61449
0.850666
0.495766
-0.080961
-2.00598
0.0822002
-2.64129
0.846137
0.496814
-0.0837072
-2.01833
0.153781
-2.61472
0.857788
0.48716
-0.110018
-2.05685
0.165487
-2.63824
0.866885
0.481581
-0.113891
-2.04362
0.0994849
-2.57872
0.879704
0.476956
-0.124307
-2.07757
-0.0235997
-2.65854
0.877879
0.475474
-0.133542
-2.09058
0.0461389
-2.67858
0.880943
0.471966
-0.137222
-2.08485
0.0485255
-2.65044
0.887825
0.46681
-0.142526
-2.09002
0.0138328
-2.62965
0.896161
0.464619
-0.145419
-2.09833
-0.0903088
-2.6733
0.91
0.456505
-0.160344
-2.12385
-0.186765
-2.71023
0.915057
0.452262
-0.170759
-2.1209
-0.197333
-2.62518
0.922515
0.445796
-0.179894
-2.14207
-0.221149
-2.62083
0.922346
0.445182
-0.18385
-2.15168
-0.203933
-2.63902
0.928989
0.442377
-0.188612
-2.15178
-0.274304
-2.64446
0.926229
0.443072
-0.189264
-2.15217
-0.234649
-2.63371
0.932495
0.439396
-0.196093
-2.1608
-0.285718
-2.66966
0.942059
0.433254
-0.204518
-2.16757
-0.358021
-2.63297
0.941033
0.433672
-0.199751
-2.1581
-0.351797
-2.58867
0.94094
0.433638
-0.201322
-2.16424
-0.347972
-2.62429
0.943367
0.43039
-0.205195
-2.1693
-0.343478
-2.62246
0.952827
0.426223
-0.215253
-2.17943
-0.441372
-2.6478
0.956525
0.419715
-0.221316
-2.18734
-0.415604
-2.59698
0.967286
0.415224
-0.230126
-2.2067
-0.537333
-2.68362
0.966826
0.414055
-0.233019
-2.21233
-0.511447
-2.69154
0.966144
0.413013
-0.23278
-2.20187
-0.485848
-2.60619
0.972796
0.409804
-0.23567
-2.21625
-0.558152
-2.63879
0.974413
0.408095
-0.239215
-2.20885
-0.560357
-2.56435
0.975772
0.405292
-0.238072
-2.20467
-0.551174
-2.51151
0.975484
0.407946
-0.236398
-2.20917
-0.582412
-2.61243
